encog,BasicNetwork,java,3.2.0,1,1405264399347
[BASIC]
[BASIC:PARAMS]
[BASIC:NETWORK]
beginTraining=0
connectionLimit=0
contextTargetOffset=0,0,0
contextTargetSize=0,0,0
endTraining=2
hasContext=f
inputCount=8
layerCounts=3,9,9
layerFeedCounts=3,8,8
layerContextCount=0,0,0
layerIndex=0,3,12
output=0,0,0,0,0,0,0,0,0,0,0,1,0,0,0,0,0,0,0,0,1
outputCount=3
weightIndex=0,27,99
weights=-77.3329608262,-1.4949729448,-0.7877037808,33.5401465251,-14.0586462887,-75.4213579682,-77.1311067711,0.0392144664,-15.737824032,17.2824477746,-0.3012335424,-0.5444100677,-64.277326996,-86.5630015706,9.5384595915,14.5636617383,0.5082175774,-33.3903495539,-66.08323025,26.2640950976,26.3246569758,-46.9654399214,-70.6519894655,-65.79605345,-66.0518413889,26.0992517543,-76.7059728855,370.3537010331,392.9796858525,-166.4219339938,-339.6887077249,340.6124754077,-207.4439000076,-305.6662366546,425.4627574354,177.6088793817,7.5991236539,19.1033889336,80.4202532245,170.6355487927,-168.6453121112,68.5016065449,-44.1537302658,-9.9118393782,-101.8190192482,-0.1211229807,11.6337855111,80.5799167131,171.6319888117,-169.4385250696,70.3269900335,-38.8006477735,-16.21259829,-102.6995487734,-429.5353688252,-113.7224178279,-99.7240904759,-207.4410454053,209.3880650475,101.6119856716,440.4428251863,-73.3468302355,110.6270240334,-484.7646421369,407.3984543823,-195.1563171112,-407.3220685436,408.4666606473,202.0464971958,445.4542514079,450.006718551,228.5648028319,322.5824317636,431.1961511911,-160.543886891,-325.6504581591,326.308053475,-167.8643458647,-272.0191737187,459.6410454972,167.095528099,355.038527971,410.4662909911,-165.5468662994,-336.4040771431,337.37923584,-193.6854959108,-294.9644631531,442.4597775473,175.9046493427,4.9956511923,-2.5382607704,80.4631412507,173.5219388228,-170.7739494469,63.2609664712,-40.240501218,-30.5174794645,-106.0823594045
biasActivation=0,1,1
[BASIC:ACTIVATION]
"org.encog.engine.network.activation.ActivationSigmoid"
"org.encog.engine.network.activation.ActivationSigmoid"
"org.encog.engine.network.activation.ActivationLinear"
