encog,BasicNetwork,java,3.2.0,1,1405340794359
[BASIC]
[BASIC:PARAMS]
[BASIC:NETWORK]
beginTraining=0
connectionLimit=0
contextTargetOffset=0,0,0
contextTargetSize=0,0,0
endTraining=2
hasContext=f
inputCount=8
layerCounts=3,10,9
layerFeedCounts=3,9,8
layerContextCount=0,0,0
layerIndex=0,3,13
output=0,0,0,0,0,0,0,0,0,0,0,0,1,0,0,0,0,0,0,0,0,1
outputCount=3
weightIndex=0,30,111
weights=-80.7089972315,3.5675006174,-80.303760485,-2.0207122276,-82.0375962477,-1.7655634029,-1.4349337208,-81.678287896,-79.7824610333,-0.8972705045,-47.3410051229,-87.1230364729,17.590782233,0.2716247911,-43.8281612473,0.2806343366,-85.332103634,-45.3840435209,17.6903293438,-31.703250044,-16.0287316617,-69.8318135748,-66.9302274801,34.7757425034,-31.7803502663,34.6995406778,-68.2475663701,-27.6023415924,-67.1517075863,-67.7218091319,57.9144026533,587.6094186937,-30.0795323648,-98.6853437545,102.1587453044,116.209604113,-129.6873962338,564.586712137,106.2167142076,-562.3194071322,279.0187796012,-219.1760642436,-423.5700633219,425.7666107753,182.5949374269,546.8518305171,336.7879486214,184.9565622099,388.3654675883,426.4517122759,-189.5636505677,-368.5056452552,368.6908239688,-225.9240208125,-314.3008810461,466.301966773,165.1460589638,7.1829047474,5.908624626,121.6981968367,242.233830111,-241.8209392124,97.7092021565,-63.0318327716,-34.610587722,-121.9077247837,29.7205586695,624.5159167566,-85.5523025144,-184.5182268283,187.0657575589,95.2317922168,-85.7798159329,617.7671535337,111.7900080358,5.8317852525,4.0790746605,121.6843499116,242.1937291006,-241.0104135397,96.5700118369,-61.2980291444,-36.6864335636,-119.2811880809,-504.3451742418,322.7098611441,-210.1394691758,-404.5834611053,406.0895495619,174.8743863436,483.9501686226,375.4578317066,178.8351888935,43.5767547606,610.0462142633,-72.8627293758,-168.9877733592,169.3571393157,95.8295836907,-103.7399630057,600.5384548478,117.0507204863,388.939209993,421.9411325047,-190.8182957496,-366.2695183202,369.3217727604,-227.0674787303,-314.6086069925,461.7014684853,163.4892309266
biasActivation=0,1,1
[BASIC:ACTIVATION]
"org.encog.engine.network.activation.ActivationSigmoid"
"org.encog.engine.network.activation.ActivationSigmoid"
"org.encog.engine.network.activation.ActivationLinear"
