encog,BasicNetwork,java,3.2.0,1,1405340890531
[BASIC]
[BASIC:PARAMS]
[BASIC:NETWORK]
beginTraining=0
connectionLimit=0
contextTargetOffset=0,0,0
contextTargetSize=0,0,0
endTraining=2
hasContext=f
inputCount=8
layerCounts=3,9,9
layerFeedCounts=3,8,8
layerContextCount=0,0,0
layerIndex=0,3,12
output=0,0,0,0,0,0,0,0,0,0,0,1,0,0,0,0,0,0,0,0,1
outputCount=3
weightIndex=0,27,99
weights=-99.6698899523,0.2337964373,76.2636872299,-24.2061359281,-0.1548520647,-23.0538156745,-0.5285870033,-0.4087672864,-27.2074665217,12.9323521938,-0.98777652,26.3977865671,-114.4363322635,-0.1278607514,-114.5464360116,0.2516967554,-0.7007345352,-35.9157194676,-82.9341557067,27.6125290987,-83.4279145724,-83.5346905174,26.723534952,-88.4237613986,26.245346713,26.2427431542,-104.66704714,520.3774872396,744.0307574154,-243.0024398642,-527.8449091658,529.0035084978,-243.5574813171,-457.8530652941,783.3488284112,325.5670476671,-12.1664580453,2.9835700935,101.8202427385,226.9917954308,-225.2400999126,90.5026550915,-35.8891853443,-29.4939467543,-151.0824197133,-55.5237710346,-650.2676885137,-211.5802461309,-428.4448932589,431.9438763493,-333.4281611156,259.3851497085,-542.3833033572,219.8581506854,-777.7008713897,648.8852325241,-278.0827795251,-631.9232917503,634.2060374496,349.1754011337,699.0946209645,704.3319816255,430.3545664708,0.6542875986,3.0636513273,96.0266133303,215.2653842768,-213.2251374934,79.2441562574,-43.6599892027,-28.2407648401,-143.6692621981,-825.816496427,656.9465929871,-297.0760531401,-665.022789172,666.2475445114,359.9861355681,747.5058942607,718.6767109706,439.0172423548,9.1352291992,5.8056842201,92.1181243648,207.1648466288,-206.3049508843,74.0080183977,-49.9361319768,-26.4079598126,-139.0507911677,-4.2429208392,10.0990174721,91.665635371,204.4910577702,-203.4280468344,80.9813379484,-39.1906150314,-20.0686906839,-136.1481553081
biasActivation=0,1,1
[BASIC:ACTIVATION]
"org.encog.engine.network.activation.ActivationSigmoid"
"org.encog.engine.network.activation.ActivationSigmoid"
"org.encog.engine.network.activation.ActivationLinear"
